<?xml version="1.0"?>
<opencv_storage>
<cascade>
  <stageType>BOOST</stageType>
  <featureType>HAAR</featureType>
  <height>20</height>
  <width>20</width>
  <stageParams>
    <boostType>GAB</boostType>
    <minHitRate>9.9500000476837158e-01</minHitRate>
    <maxFalseAlarm>5.0000000000000000e-01</maxFalseAlarm>
    <weightTrimRate>9.4999999999999996e-01</weightTrimRate>
    <maxDepth>1</maxDepth>
    <maxWeakCount>100</maxWeakCount></stageParams>
  <featureParams>
    <maxCatCount>0</maxCatCount>
    <featSize>1</featSize>
    <mode>BASIC</mode></featureParams>
  <stageNum>10</stageNum>
  <stages>
    <!-- stage 0 -->
    <_>
      <maxWeakCount>7</maxWeakCount>
      <stageThreshold>-5.3130400180816650e-01</stageThreshold>
      <weakClassifiers>
        <_>
          <internalNodes>
            0 -1 91 -1.6518782824277878e-02</internalNodes>
          <leafValues>
            6.3721901178359985e-01 -4.0533670783042908e-01</leafValues></_>
        <_>
          <internalNodes>
            0 -1 54 -1.0940777137875557e-03</internalNodes>
          <leafValues>
            5.8852559328079224e-01 -3.9438161253929138e-01</leafValues></_>
        <_>
          <internalNodes>
            0 -1 80 -1.2281804811209440e-03</internalNodes>
          <leafValues>
            5.6766718626022339e-01 -3.9224815368652344e-01</leafValues></_>
        <_>
          <internalNodes>
            0 -1 78 7.6177954673767090e-02</internalNodes>
          <leafValues>
            -3.9657184481620789e-01 5.3212785720825195e-01</leafValues></_>
        <_>
          <internalNodes>
            0 -1 131 1.9311310024932027e-03</internalNodes>
          <leafValues>
            -2.9363960027694702e-01 7.4928480386734009e-01</leafValues></_>
        <_>
          <internalNodes>
            0 -1 64 4.0615610778331757e-03</internalNodes>
          <leafValues>
            -2.3114836215972900e-01 7.2199523448944092e-01</leafValues></_>
        <_>
          <internalNodes>
            0 -1 134 -2.0605381578207016e-03</internalNodes>
          <leafValues>
            6.5332257747650146e-01 -2.3324503004550934e-01</leafValues></_></weakClassifiers></_>
    <!-- stage 1 -->
    <_>
      <maxWeakCount>10</maxWeakCount>
      <stageThreshold>-9.5496624708175659e-01</stageThreshold>
      <weakClassifiers>
        <_>
          <internalNodes>
            0 -1 18 8.3230346441268921e-02</internalNodes>
          <leafValues>
            -1.1449015885591507e-01 6.4981037378311157e-01</leafValues></_>
        <_>
          <internalNodes>
            0 -1 58 3.6549533251672983e-04</internalNodes>
          <leafValues>
            -4.2901664972305298e-01 4.0239298343658447e-01</leafValues></_>
        <_>
          <internalNodes>
            0 -1 39 1.3391017913818359e-02</internalNodes>
          <leafValues>
            -2.0283925533294678e-01 7.8203839063644409e-01</leafValues></_>
        <_>
          <internalNodes>
            0 -1 8 -8.2065705209970474e-03</internalNodes>
          <leafValues>
            6.9534009695053101e-01 -3.7108188867568970e-01</leafValues></_>
        <_>
          <internalNodes>
            0 -1 77 1.8896168470382690e-01</internalNodes>
          <leafValues>
            -1.0485636442899704e-01 7.4234730005264282e-01</leafValues></_>
        <_>
          <internalNodes>
            0 -1 10 2.9699881561100483e-03</internalNodes>
          <leafValues>
            -2.1790234744548798e-01 7.7176189422607422e-01</leafValues></_>
        <_>
          <internalNodes>
            0 -1 125 -4.2909191688522696e-04</internalNodes>
          <leafValues>
            4.2194157838821411e-01 -3.5311371088027954e-01</leafValues></_>
        <_>
          <internalNodes>
            0 -1 94 -2.2524087689816952e-03</internalNodes>
          <leafValues>
            5.5670332908630371e-01 -2.4069719016551971e-01</leafValues></_>
        <_>
          <internalNodes>
            0 -1 83 -3.3944059163331985e-02</internalNodes>
          <leafValues>
            6.1016231775283813e-01 -2.3965820670127869e-01</leafValues></_>
        <_>
          <internalNodes>
            0 -1 148 -1.6079142224043608e-03</internalNodes>
          <leafValues>
            4.6886906027793884e-01 -2.3334445059299469e-01</leafValues></_></weakClassifiers></_>
    <!-- stage 2 -->
    <_>
      <maxWeakCount>13</maxWeakCount>
      <stageThreshold>-1.2355834245681763e+00</stageThreshold>
      <weakClassifiers>
        <_>
          <internalNodes>
            0 -1 62 1.1754846572875977e-01</internalNodes>
          <leafValues>
            2.9908971861004829e-02 7.3493975400924683e-01</leafValues></_>
        <_>
          <internalNodes>
            0 -1 124 6.0507364105433226e-04</internalNodes>
          <leafValues>
            -2.7496337890625000e-01 4.7162473201751709e-01</leafValues></_>
        <_>
          <internalNodes>
            0 -1 98 1.1329275555908680e-02</internalNodes>
          <leafValues>
            -1.5076629817485809e-01 8.2871645689010620e-01</leafValues></_>
        <_>
          <internalNodes>
            0 -1 106 -1.0429425165057182e-02</internalNodes>
          <leafValues>
            7.6669692993164063e-01 -2.9487228393554688e-01</leafValues></_>
        <_>
          <internalNodes>
            0 -1 81 3.1136646866798401e-03</internalNodes>
          <leafValues>
            -1.7365965247154236e-01 6.0065555572509766e-01</leafValues></_>
        <_>
          <internalNodes>
            0 -1 13 5.8679230511188507e-02</internalNodes>
          <leafValues>
            -3.4880286455154419e-01 3.7083476781845093e-01</leafValues></_>
        <_>
          <internalNodes>
            0 -1 53 -1.6926776152104139e-03</internalNodes>
          <leafValues>
            5.4054099321365356e-01 -2.6162636280059814e-01</leafValues></_>
        <_>
          <internalNodes>
            0 -1 75 -4.3392492807470262e-04</internalNodes>
          <leafValues>
            3.7000706791877747e-01 -3.4447947144508362e-01</leafValues></_>
        <_>
          <internalNodes>
            0 -1 42 -5.7091221213340759e-02</internalNodes>
          <leafValues>
            6.0401111841201782e-01 -1.9879150390625000e-01</leafValues></_>
        <_>
          <internalNodes>
            0 -1 49 9.3511780723929405e-03</internalNodes>
          <leafValues>
            -1.4501731097698212e-01 6.2743949890136719e-01</leafValues></_>
        <_>
          <internalNodes>
            0 -1 29 -1.1952791828662157e-04</internalNodes>
          <leafValues>
            -4.9703016877174377e-01 2.6207721233367920e-01</leafValues></_>
        <_>
          <internalNodes>
            0 -1 52 -5.2846893668174744e-02</internalNodes>
          <leafValues>
            2.9107406735420227e-01 -4.0143644809722900e-01</leafValues></_>
        <_>
          <internalNodes>
            0 -1 57 2.5003965129144490e-04</internalNodes>
          <leafValues>
            -4.2397272586822510e-01 2.6404336094856262e-01</leafValues></_></weakClassifiers></_>
    <!-- stage 3 -->
    <_>
      <maxWeakCount>17</maxWeakCount>
      <stageThreshold>-1.2294828891754150e+00</stageThreshold>
      <weakClassifiers>
        <_>
          <internalNodes>
            0 -1 97 2.2049929248169065e-04</internalNodes>
          <leafValues>
            -6.8158701062202454e-02 5.6319159269332886e-01</leafValues></_>
        <_>
          <internalNodes>
            0 -1 90 -6.9343708455562592e-02</internalNodes>
          <leafValues>
            4.2038863897323608e-01 -3.0418252944946289e-01</leafValues></_>
        <_>
          <internalNodes>
            0 -1 120 -1.7864045221358538e-03</internalNodes>
          <leafValues>
            4.0123075246810913e-01 -2.6277670264244080e-01</leafValues></_>
        <_>
          <internalNodes>
            0 -1 129 6.1718090437352657e-03</internalNodes>
          <leafValues>
            -1.6397783160209656e-01 6.3655656576156616e-01</leafValues></_>
        <_>
          <internalNodes>
            0 -1 122 -6.6409064456820488e-03</internalNodes>
          <leafValues>
            6.2144076824188232e-01 -2.1911507844924927e-01</leafValues></_>
        <_>
          <internalNodes>
            0 -1 67 -1.8673264421522617e-03</internalNodes>
          <leafValues>
            3.8280221819877625e-01 -2.4835969507694244e-01</leafValues></_>
        <_>
          <internalNodes>
            0 -1 60 -1.6123011708259583e-02</internalNodes>
          <leafValues>
            7.3944729566574097e-01 -1.4939635992050171e-01</leafValues></_>
        <_>
          <internalNodes>
            0 -1 69 1.7632196843624115e-01</internalNodes>
          <leafValues>
            -1.9730632007122040e-01 5.5768990516662598e-01</leafValues></_>
        <_>
          <internalNodes>
            0 -1 40 1.6435388475656509e-02</internalNodes>
          <leafValues>
            -1.4652217924594879e-01 6.0492867231369019e-01</leafValues></_>
        <_>
          <internalNodes>
            0 -1 152 -1.5490442747250199e-03</internalNodes>
          <leafValues>
            4.1003492474555969e-01 -2.3020182549953461e-01</leafValues></_>
        <_>
          <internalNodes>
            0 -1 125 4.2563679016893730e-05</internalNodes>
          <leafValues>
            2.3063556849956512e-01 -4.4506224989891052e-01</leafValues></_>
        <_>
          <internalNodes>
            0 -1 3 -5.5719733238220215e-02</internalNodes>
          <leafValues>
            -6.9593775272369385e-01 1.1812000721693039e-01</leafValues></_>
        <_>
          <internalNodes>
            0 -1 9 1.9133819732815027e-03</internalNodes>
          <leafValues>
            -2.1371077001094818e-01 4.8829096555709839e-01</leafValues></_>
        <_>
          <internalNodes>
            0 -1 150 2.7475782553665340e-04</internalNodes>
          <leafValues>
            -2.9173943400382996e-01 3.1286975741386414e-01</leafValues></_>
        <_>
          <internalNodes>
            0 -1 65 -5.6143640540540218e-03</internalNodes>
          <leafValues>
            4.9800950288772583e-01 -1.6033427417278290e-01</leafValues></_>
        <_>
          <internalNodes>
            0 -1 55 -4.3639396317303181e-03</internalNodes>
          <leafValues>
            4.3072375655174255e-01 -2.4644146859645844e-01</leafValues></_>
        <_>
          <internalNodes>
            0 -1 116 1.4053418301045895e-02</internalNodes>
          <leafValues>
            -1.0750136524438858e-01 7.0769017934799194e-01</leafValues></_></weakClassifiers></_>
    <!-- stage 4 -->
    <_>
      <maxWeakCount>18</maxWeakCount>
      <stageThreshold>-9.0133082866668701e-01</stageThreshold>
      <weakClassifiers>
        <_>
          <internalNodes>
            0 -1 80 2.3184015299193561e-04</internalNodes>
          <leafValues>
            4.9598109722137451e-01 -2.5470086932182312e-01</leafValues></_>
        <_>
          <internalNodes>
            0 -1 100 9.2028617858886719e-02</internalNodes>
          <leafValues>
            -2.2981257736682892e-01 4.1660684347152710e-01</leafValues></_>
        <_>
          <internalNodes>
            0 -1 45 -1.6589991282671690e-03</internalNodes>
          <leafValues>
            3.6780852079391479e-01 -3.0103898048400879e-01</leafValues></_>
        <_>
          <internalNodes>
            0 -1 41 4.6396097168326378e-03</internalNodes>
          <leafValues>
            -1.7308579385280609e-01 6.0413259267807007e-01</leafValues></_>
        <_>
          <internalNodes>
            0 -1 39 2.5247059762477875e-02</internalNodes>
          <leafValues>
            -1.7628900706768036e-01 7.5875389575958252e-01</leafValues></_>
        <_>
          <internalNodes>
            0 -1 48 -8.5699250921607018e-03</internalNodes>
          <leafValues>
            5.8898162841796875e-01 -1.7483589053153992e-01</leafValues></_>
        <_>
          <internalNodes>
            0 -1 63 -7.4615359306335449e-02</internalNodes>
          <leafValues>
            4.0708827972412109e-01 -2.1223922073841095e-01</leafValues></_>
        <_>
          <internalNodes>
            0 -1 149 5.7740905322134495e-04</internalNodes>
          <leafValues>
            -2.9927542805671692e-01 3.2748556137084961e-01</leafValues></_>
        <_>
          <internalNodes>
            0 -1 23 1.6226053703576326e-03</internalNodes>
          <leafValues>
            -2.1430945396423340e-01 4.3463641405105591e-01</leafValues></_>
        <_>
          <internalNodes>
            0 -1 124 -4.8447749577462673e-05</internalNodes>
          <leafValues>
            -3.8124024868011475e-01 2.1052744984626770e-01</leafValues></_>
        <_>
          <internalNodes>
            0 -1 130 2.3965146392583847e-03</internalNodes>
          <leafValues>
            -1.4715901017189026e-01 5.2709984779357910e-01</leafValues></_>
        <_>
          <internalNodes>
            0 -1 4 5.3967677056789398e-02</internalNodes>
          <leafValues>
            -3.3720234036445618e-01 2.4697870016098022e-01</leafValues></_>
        <_>
          <internalNodes>
            0 -1 5 -1.5872088624746539e-05</internalNodes>
          <leafValues>
            1.9141466915607452e-01 -3.9108267426490784e-01</leafValues></_>
        <_>
          <internalNodes>
            0 -1 92 1.0700300335884094e-02</internalNodes>
          <leafValues>
            -1.1329545080661774e-01 6.5303003787994385e-01</leafValues></_>
        <_>
          <internalNodes>
            0 -1 103 6.0136821120977402e-03</internalNodes>
          <leafValues>
            -1.7450453341007233e-01 5.5882024765014648e-01</leafValues></_>
        <_>
          <internalNodes>
            0 -1 140 -2.3032859899103642e-03</internalNodes>
          <leafValues>
            4.8630598187446594e-01 -1.2992192804813385e-01</leafValues></_>
        <_>
          <internalNodes>
            0 -1 109 -1.1576591059565544e-02</internalNodes>
          <leafValues>
            4.9911582469940186e-01 -1.5046031773090363e-01</leafValues></_>
        <_>
          <internalNodes>
            0 -1 43 7.8146103769540787e-03</internalNodes>
          <leafValues>
            -1.8570603430271149e-01 4.3146950006484985e-01</leafValues></_></weakClassifiers></_>
    <!-- stage 5 -->
    <_>
      <maxWeakCount>21</maxWeakCount>
      <stageThreshold>-9.4203770160675049e-01</stageThreshold>
      <weakClassifiers>
        <_>
          <internalNodes>
            0 -1 33 2.0119741384405643e-04</internalNodes>
          <leafValues>
            -2.3933403193950653e-02 5.3076481819152832e-01</leafValues></_>
        <_>
          <internalNodes>
            0 -1 109 1.4266021549701691e-02</internalNodes>
          <leafValues>
            -1.0451343655586243e-01 6.8721312284469604e-01</leafValues></_>
        <_>
          <internalNodes>
            0 -1 114 -5.1302742213010788e-03</internalNodes>
          <leafValues>
            4.7202816605567932e-01 -3.0346271395683289e-01</leafValues></_>
        <_>
          <internalNodes>
            0 -1 82 9.2054456472396851e-02</internalNodes>
          <leafValues>
            -2.5173249840736389e-01 3.4471145272254944e-01</leafValues></_>
        <_>
          <internalNodes>
            0 -1 135 -4.0666838176548481e-03</internalNodes>
          <leafValues>
            5.1544547080993652e-01 -1.8260408937931061e-01</leafValues></_>
        <_>
          <internalNodes>
            0 -1 132 4.9982005730271339e-03</internalNodes>
          <leafValues>
            -2.2283768653869629e-01 4.8183512687683105e-01</leafValues></_>
        <_>
          <internalNodes>
            0 -1 153 5.3567835129797459e-04</internalNodes>
          <leafValues>
            -2.4838659167289734e-01 3.2494080066680908e-01</leafValues></_>
        <_>
          <internalNodes>
            0 -1 10 2.9437313787639141e-03</internalNodes>
          <leafValues>
            -1.2568628787994385e-01 5.4091024398803711e-01</leafValues></_>
        <_>
          <internalNodes>
            0 -1 108 -3.1164387241005898e-02</internalNodes>
          <leafValues>
            2.0933872461318970e-01 -3.6906683444976807e-01</leafValues></_>
        <_>
          <internalNodes>
            0 -1 96 4.0244217962026596e-04</internalNodes>
          <leafValues>
            -2.9093131422996521e-01 2.7174380421638489e-01</leafValues></_>
        <_>
          <internalNodes>
            0 -1 56 -5.7221092283725739e-03</internalNodes>
          <leafValues>
            5.1660609245300293e-01 -1.6969975829124451e-01</leafValues></_>
        <_>
          <internalNodes>
            0 -1 74 -3.7121574860066175e-04</internalNodes>
          <leafValues>
            2.8949007391929626e-01 -3.1089150905609131e-01</leafValues></_>
        <_>
          <internalNodes>
            0 -1 57 -5.1784147217404097e-05</internalNodes>
          <leafValues>
            -5.1136976480484009e-01 1.3722980022430420e-01</leafValues></_>
        <_>
          <internalNodes>
            0 -1 12 -2.7548510115593672e-03</internalNodes>
          <leafValues>
            -5.6856250762939453e-01 1.2105439603328705e-01</leafValues></_>
        <_>
          <internalNodes>
            0 -1 26 -3.3915288746356964e-02</internalNodes>
          <leafValues>
            -7.8304320573806763e-01 6.7488066852092743e-02</leafValues></_>
        <_>
          <internalNodes>
            0 -1 32 2.1301887929439545e-02</internalNodes>
          <leafValues>
            1.1675582826137543e-01 -6.2886440753936768e-01</leafValues></_>
        <_>
          <internalNodes>
            0 -1 47 2.1231336519122124e-02</internalNodes>
          <leafValues>
            1.0236503928899765e-01 -6.3417589664459229e-01</leafValues></_>
        <_>
          <internalNodes>
            0 -1 2 1.5709575265645981e-02</internalNodes>
          <leafValues>
            -2.8402173519134521e-01 2.2694006562232971e-01</leafValues></_>
        <_>
          <internalNodes>
            0 -1 68 1.1011805385351181e-02</internalNodes>
          <leafValues>
            -1.2812250852584839e-01 5.8371204137802124e-01</leafValues></_>
        <_>
          <internalNodes>
            0 -1 104 1.9636054639704525e-04</internalNodes>
          <leafValues>
            1.9711220264434814e-01 -3.3479842543601990e-01</leafValues></_>
        <_>
          <internalNodes>
            0 -1 145 1.7090619076043367e-03</internalNodes>
          <leafValues>
            -1.6032843291759491e-01 4.0586784482002258e-01</leafValues></_></weakClassifiers></_>
    <!-- stage 6 -->
    <_>
      <maxWeakCount>23</maxWeakCount>
      <stageThreshold>-9.1816115379333496e-01</stageThreshold>
      <weakClassifiers>
        <_>
          <internalNodes>
            0 -1 127 7.3298701317980886e-04</internalNodes>
          <leafValues>
            5.1685392856597900e-02 6.0879123210906982e-01</leafValues></_>
        <_>
          <internalNodes>
            0 -1 6 1.4824629761278629e-03</internalNodes>
          <leafValues>
            -1.4984683692455292e-01 4.3143215775489807e-01</leafValues></_>
        <_>
          <internalNodes>
            0 -1 20 9.9638037383556366e-02</internalNodes>
          <leafValues>
            -3.4294238686561584e-01 2.4076063930988312e-01</leafValues></_>
        <_>
          <internalNodes>
            0 -1 39 -1.5109470114111900e-02</internalNodes>
          <leafValues>
            4.5810720324516296e-01 -2.1438451111316681e-01</leafValues></_>
        <_>
          <internalNodes>
            0 -1 88 -2.4670143611729145e-03</internalNodes>
          <leafValues>
            5.3490066528320313e-01 -2.0293408632278442e-01</leafValues></_>
        <_>
          <internalNodes>
            0 -1 58 8.7015581084415317e-04</internalNodes>
          <leafValues>
            -2.7477630972862244e-01 2.9162567853927612e-01</leafValues></_>
        <_>
          <internalNodes>
            0 -1 30 6.4780171960592270e-03</internalNodes>
          <leafValues>
            -1.4088368415832520e-01 5.5136334896087646e-01</leafValues></_>
        <_>
          <internalNodes>
            0 -1 51 2.2317168116569519e-01</internalNodes>
          <leafValues>
            -1.8395620584487915e-01 4.4604688882827759e-01</leafValues></_>
        <_>
          <internalNodes>
            0 -1 71 7.7354580163955688e-02</internalNodes>
          <leafValues>
            -1.8169528245925903e-01 4.5196348428726196e-01</leafValues></_>
        <_>
          <internalNodes>
            0 -1 36 -2.3619327694177628e-03</internalNodes>
          <leafValues>
            5.1361751556396484e-01 -1.3135842978954315e-01</leafValues></_>
        <_>
          <internalNodes>
            0 -1 84 -1.2835829984396696e-03</internalNodes>
          <leafValues>
            3.8814339041709900e-01 -1.9336491823196411e-01</leafValues></_>
        <_>
          <internalNodes>
            0 -1 37 -1.5270261093974113e-02</internalNodes>
          <leafValues>
            -5.9291261434555054e-01 1.1880537867546082e-01</leafValues></_>
        <_>
          <internalNodes>
            0 -1 126 -2.4039749987423420e-03</internalNodes>
          <leafValues>
            3.3459022641181946e-01 -1.9961117208003998e-01</leafValues></_>
        <_>
          <internalNodes>
            0 -1 137 9.8710209131240845e-03</internalNodes>
          <leafValues>
            -1.2735608220100403e-01 5.0404441356658936e-01</leafValues></_>
        <_>
          <internalNodes>
            0 -1 141 -1.2835819274187088e-02</internalNodes>
          <leafValues>
            6.5288555622100830e-01 -1.0308903455734253e-01</leafValues></_>
        <_>
          <internalNodes>
            0 -1 15 -3.6070480942726135e-02</internalNodes>
          <leafValues>
            3.5386905074119568e-01 -1.8113070726394653e-01</leafValues></_>
        <_>
          <internalNodes>
            0 -1 64 7.4049457907676697e-03</internalNodes>
          <leafValues>
            -1.1494912207126617e-01 5.0586062669754028e-01</leafValues></_>
        <_>
          <internalNodes>
            0 -1 121 -1.4933305792510509e-03</internalNodes>
          <leafValues>
            4.1153007745742798e-01 -1.8004128336906433e-01</leafValues></_>
        <_>
          <internalNodes>
            0 -1 136 -8.3972502034157515e-04</internalNodes>
          <leafValues>
            3.5200378298759460e-01 -2.0809566974639893e-01</leafValues></_>
        <_>
          <internalNodes>
            0 -1 44 -1.0928055271506310e-03</internalNodes>
          <leafValues>
            3.3473187685012817e-01 -2.1611300110816956e-01</leafValues></_>
        <_>
          <internalNodes>
            0 -1 151 -1.4050137251615524e-03</internalNodes>
          <leafValues>
            3.7061530351638794e-01 -1.5326008200645447e-01</leafValues></_>
        <_>
          <internalNodes>
            0 -1 149 1.5790807083249092e-04</internalNodes>
          <leafValues>
            -3.2863271236419678e-01 2.0275379717350006e-01</leafValues></_>
        <_>
          <internalNodes>
            0 -1 72 -4.8546608537435532e-02</internalNodes>
          <leafValues>
            4.8580244183540344e-01 -1.4832818508148193e-01</leafValues></_></weakClassifiers></_>
    <!-- stage 7 -->
    <_>
      <maxWeakCount>25</maxWeakCount>
      <stageThreshold>-9.6720981597900391e-01</stageThreshold>
      <weakClassifiers>
        <_>
          <internalNodes>
            0 -1 111 -5.4770536720752716e-02</internalNodes>
          <leafValues>
            5.8917421102523804e-01 4.0508341044187546e-02</leafValues></_>
        <_>
          <internalNodes>
            0 -1 93 -2.1077091805636883e-03</internalNodes>
          <leafValues>
            4.8539561033248901e-01 -1.1817973852157593e-01</leafValues></_>
        <_>
          <internalNodes>
            0 -1 105 1.0544613003730774e-02</internalNodes>
          <leafValues>
            -1.0492630302906036e-01 5.7420474290847778e-01</leafValues></_>
        <_>
          <internalNodes>
            0 -1 110 -1.4411628246307373e-02</internalNodes>
          <leafValues>
            4.5010218024253845e-01 -2.1170717477798462e-01</leafValues></_>
        <_>
          <internalNodes>
            0 -1 16 3.7161841988563538e-02</internalNodes>
          <leafValues>
            -2.7185541391372681e-01 2.9117563366889954e-01</leafValues></_>
        <_>
          <internalNodes>
            0 -1 10 1.7477918881922960e-03</internalNodes>
          <leafValues>
            -1.7651756107807159e-01 4.2078652977943420e-01</leafValues></_>
        <_>
          <internalNodes>
            0 -1 122 9.1791413724422455e-03</internalNodes>
          <leafValues>
            -1.4531722664833069e-01 5.2298253774642944e-01</leafValues></_>
        <_>
          <internalNodes>
            0 -1 120 -1.2678429484367371e-03</internalNodes>
          <leafValues>
            3.0285546183586121e-01 -2.7666494250297546e-01</leafValues></_>
        <_>
          <internalNodes>
            0 -1 38 -2.3897890001535416e-02</internalNodes>
          <leafValues>
            6.4699822664260864e-01 -8.3627820014953613e-02</leafValues></_>
        <_>
          <internalNodes>
            0 -1 97 -5.8704667026177049e-05</internalNodes>
          <leafValues>
            -4.1050845384597778e-01 1.5686522424221039e-01</leafValues></_>
        <_>
          <internalNodes>
            0 -1 22 -1.7885940615087748e-03</internalNodes>
          <leafValues>
            4.1236525774002075e-01 -1.6566970944404602e-01</leafValues></_>
        <_>
          <internalNodes>
            0 -1 144 9.0437512844800949e-03</internalNodes>
          <leafValues>
            -1.3454782962799072e-01 4.9030897021293640e-01</leafValues></_>
        <_>
          <internalNodes>
            0 -1 139 -3.4513473510742188e-03</internalNodes>
          <leafValues>
            4.3567308783531189e-01 -1.5451858937740326e-01</leafValues></_>
        <_>
          <internalNodes>
            0 -1 89 1.5387627482414246e-01</internalNodes>
          <leafValues>
            -1.4833326637744904e-01 4.1612213850021362e-01</leafValues></_>
        <_>
          <internalNodes>
            0 -1 150 -1.2784838327206671e-04</internalNodes>
          <leafValues>
            -4.0384984016418457e-01 1.5997606515884399e-01</leafValues></_>
        <_>
          <internalNodes>
            0 -1 126 -1.0748866479843855e-03</internalNodes>
          <leafValues>
            2.4243107438087463e-01 -2.8932681679725647e-01</leafValues></_>
        <_>
          <internalNodes>
            0 -1 33 -2.5564030511304736e-04</internalNodes>
          <leafValues>
            -4.3097063899040222e-01 1.4700226485729218e-01</leafValues></_>
        <_>
          <internalNodes>
            0 -1 76 -1.7899375961860642e-05</internalNodes>
          <leafValues>
            1.5775361657142639e-01 -3.6003658175468445e-01</leafValues></_>
        <_>
          <internalNodes>
            0 -1 122 -1.0742765851318836e-02</internalNodes>
          <leafValues>
            6.4117664098739624e-01 -8.9639477431774139e-02</leafValues></_>
        <_>
          <internalNodes>
            0 -1 41 3.1456379219889641e-03</internalNodes>
          <leafValues>
            -1.5580296516418457e-01 3.5931733250617981e-01</leafValues></_>
        <_>
          <internalNodes>
            0 -1 29 8.1407800316810608e-03</internalNodes>
          <leafValues>
            1.0584200173616409e-01 -6.9652724266052246e-01</leafValues></_>
        <_>
          <internalNodes>
            0 -1 38 1.6009984537959099e-02</internalNodes>
          <leafValues>
            -1.3037574291229248e-01 5.6308716535568237e-01</leafValues></_>
        <_>
          <internalNodes>
            0 -1 24 -1.2634101323783398e-02</internalNodes>
          <leafValues>
            -7.8462785482406616e-01 8.7973810732364655e-02</leafValues></_>
        <_>
          <internalNodes>
            0 -1 5 2.2170017473399639e-04</internalNodes>
          <leafValues>
            1.2872225046157837e-01 -4.5425602793693542e-01</leafValues></_>
        <_>
          <internalNodes>
            0 -1 138 3.6817073822021484e-02</internalNodes>
          <leafValues>
            6.5530478954315186e-02 -7.6503396034240723e-01</leafValues></_></weakClassifiers></_>
    <!-- stage 8 -->
    <_>
      <maxWeakCount>26</maxWeakCount>
      <stageThreshold>-8.5444700717926025e-01</stageThreshold>
      <weakClassifiers>
        <_>
          <internalNodes>
            0 -1 14 1.5953177213668823e-01</internalNodes>
          <leafValues>
            1.0937500000000000e-01 5.7739937305450439e-01</leafValues></_>
        <_>
          <internalNodes>
            0 -1 40 -2.7999838814139366e-02</internalNodes>
          <leafValues>
            6.7876589298248291e-01 -7.1227103471755981e-02</leafValues></_>
        <_>
          <internalNodes>
            0 -1 50 1.3165706768631935e-02</internalNodes>
          <leafValues>
            -1.8161012232303619e-01 4.9171039462089539e-01</leafValues></_>
        <_>
          <internalNodes>
            0 -1 75 -3.9758693310432136e-04</internalNodes>
          <leafValues>
            2.0575806498527527e-01 -2.9842489957809448e-01</leafValues></_>
        <_>
          <internalNodes>
            0 -1 58 -6.1552629631478339e-05</internalNodes>
          <leafValues>
            -4.5310798287391663e-01 1.4213448762893677e-01</leafValues></_>
        <_>
          <internalNodes>
            0 -1 11 -1.6879580216482282e-03</internalNodes>
          <leafValues>
            3.0354997515678406e-01 -2.2511716187000275e-01</leafValues></_>
        <_>
          <internalNodes>
            0 -1 7 2.4556891992688179e-02</internalNodes>
          <leafValues>
            9.8916180431842804e-02 -6.8024271726608276e-01</leafValues></_>
        <_>
          <internalNodes>
            0 -1 123 3.8865921669639647e-04</internalNodes>
          <leafValues>
            -2.6704075932502747e-01 2.2122292220592499e-01</leafValues></_>
        <_>
          <internalNodes>
            0 -1 128 -3.5257148556411266e-03</internalNodes>
          <leafValues>
            5.9216129779815674e-01 -1.2285295873880386e-01</leafValues></_>
        <_>
          <internalNodes>
            0 -1 99 1.2286875396966934e-01</internalNodes>
          <leafValues>
            -1.2246034294366837e-01 4.3191820383071899e-01</leafValues></_>
        <_>
          <internalNodes>
            0 -1 79 1.2786534428596497e-01</internalNodes>
          <leafValues>
            -1.3497327268123627e-01 5.0692862272262573e-01</leafValues></_>
        <_>
          <internalNodes>
            0 -1 86 2.3252861574292183e-03</internalNodes>
          <leafValues>
            -1.2253975123167038e-01 4.2206060886383057e-01</leafValues></_>
        <_>
          <internalNodes>
            0 -1 1 -4.1149720549583435e-02</internalNodes>
          <leafValues>
            -6.7537224292755127e-01 9.9050924181938171e-02</leafValues></_>
        <_>
          <internalNodes>
            0 -1 102 1.3365058228373528e-02</internalNodes>
          <leafValues>
            -1.0534783452749252e-01 6.3921684026718140e-01</leafValues></_>
        <_>
          <internalNodes>
            0 -1 95 -1.0515434667468071e-02</internalNodes>
          <leafValues>
            5.9903138875961304e-01 -9.2512913048267365e-02</leafValues></_>
        <_>
          <internalNodes>
            0 -1 125 -3.9012113120406866e-05</internalNodes>
          <leafValues>
            1.5932808816432953e-01 -3.9927470684051514e-01</leafValues></_>
        <_>
          <internalNodes>
            0 -1 113 3.4404553007334471e-03</internalNodes>
          <leafValues>
            -1.5581510961055756e-01 3.7300920486450195e-01</leafValues></_>
        <_>
          <internalNodes>
            0 -1 31 -4.0980331599712372e-02</internalNodes>
          <leafValues>
            -7.2969955205917358e-01 8.3221726119518280e-02</leafValues></_>
        <_>
          <internalNodes>
            0 -1 27 -4.5585411135107279e-04</internalNodes>
          <leafValues>
            -4.2032176256179810e-01 1.3454191386699677e-01</leafValues></_>
        <_>
          <internalNodes>
            0 -1 28 2.2813526447862387e-04</internalNodes>
          <leafValues>
            1.6021008789539337e-01 -3.6666864156723022e-01</leafValues></_>
        <_>
          <internalNodes>
            0 -1 22 -1.1811966542154551e-03</internalNodes>
          <leafValues>
            3.3155241608619690e-01 -1.7881214618682861e-01</leafValues></_>
        <_>
          <internalNodes>
            0 -1 143 1.1134849861264229e-02</internalNodes>
          <leafValues>
            -1.1318887025117874e-01 5.2808517217636108e-01</leafValues></_>
        <_>
          <internalNodes>
            0 -1 145 -2.1950253285467625e-03</internalNodes>
          <leafValues>
            4.9802070856094360e-01 -1.1240801215171814e-01</leafValues></_>
        <_>
          <internalNodes>
            0 -1 61 1.5111960470676422e-01</internalNodes>
          <leafValues>
            -1.7373056709766388e-01 3.3445444703102112e-01</leafValues></_>
        <_>
          <internalNodes>
            0 -1 101 6.7556917667388916e-02</internalNodes>
          <leafValues>
            -1.0194504261016846e-01 5.4479116201400757e-01</leafValues></_>
        <_>
          <internalNodes>
            0 -1 73 -2.7293531224131584e-02</internalNodes>
          <leafValues>
            -5.4172015190124512e-01 1.1531183868646622e-01</leafValues></_></weakClassifiers></_>
    <!-- stage 9 -->
    <_>
      <maxWeakCount>28</maxWeakCount>
      <stageThreshold>-8.5189598798751831e-01</stageThreshold>
      <weakClassifiers>
        <_>
          <internalNodes>
            0 -1 35 2.2181263193488121e-02</internalNodes>
          <leafValues>
            3.8473641872406006e-01 -4.9367088079452515e-01</leafValues></_>
        <_>
          <internalNodes>
            0 -1 19 9.6203312277793884e-02</internalNodes>
          <leafValues>
            -2.4808973073959351e-01 2.3595531284809113e-01</leafValues></_>
        <_>
          <internalNodes>
            0 -1 117 1.3107143342494965e-02</internalNodes>
          <leafValues>
            -1.3365510106086731e-01 5.9904229640960693e-01</leafValues></_>
        <_>
          <internalNodes>
            0 -1 107 1.4279105700552464e-02</internalNodes>
          <leafValues>
            -1.9059240818023682e-01 5.7774907350540161e-01</leafValues></_>
        <_>
          <internalNodes>
            0 -1 53 -2.9174815863370895e-03</internalNodes>
          <leafValues>
            5.1209986209869385e-01 -7.9690366983413696e-02</leafValues></_>
        <_>
          <internalNodes>
            0 -1 66 1.1590392328798771e-02</internalNodes>
          <leafValues>
            -1.7692601680755615e-01 4.6296644210815430e-01</leafValues></_>
        <_>
          <internalNodes>
            0 -1 70 1.0053715854883194e-01</internalNodes>
          <leafValues>
            -1.7527449131011963e-01 3.1315726041793823e-01</leafValues></_>
        <_>
          <internalNodes>
            0 -1 85 -1.7681815661489964e-03</internalNodes>
          <leafValues>
            2.8101891279220581e-01 -2.1564109623432159e-01</leafValues></_>
        <_>
          <internalNodes>
            0 -1 17 5.3168810904026031e-02</internalNodes>
          <leafValues>
            -1.7470173537731171e-01 2.8950646519660950e-01</leafValues></_>
        <_>
          <internalNodes>
            0 -1 25 2.4353291839361191e-02</internalNodes>
          <leafValues>
            6.3646800816059113e-02 -7.8207427263259888e-01</leafValues></_>
        <_>
          <internalNodes>
            0 -1 87 8.6204148828983307e-04</internalNodes>
          <leafValues>
            -2.1199056506156921e-01 2.3661649227142334e-01</leafValues></_>
        <_>
          <internalNodes>
            0 -1 27 -5.0294373068027198e-05</internalNodes>
          <leafValues>
            -2.8881072998046875e-01 1.7835888266563416e-01</leafValues></_>
        <_>
          <internalNodes>
            0 -1 46 -2.0019859075546265e-02</internalNodes>
          <leafValues>
            3.5285416245460510e-01 -1.5154464542865753e-01</leafValues></_>
        <_>
          <internalNodes>
            0 -1 38 7.8617855906486511e-03</internalNodes>
          <leafValues>
            -1.7650224268436432e-01 3.8334122300148010e-01</leafValues></_>
        <_>
          <internalNodes>
            0 -1 21 -1.4028817415237427e-02</internalNodes>
          <leafValues>
            -5.9691721200942993e-01 9.4778642058372498e-02</leafValues></_>
        <_>
          <internalNodes>
            0 -1 0 4.2250556871294975e-03</internalNodes>
          <leafValues>
            9.1071866452693939e-02 -5.2028363943099976e-01</leafValues></_>
        <_>
          <internalNodes>
            0 -1 115 -2.3144705221056938e-02</internalNodes>
          <leafValues>
            -6.0144531726837158e-01 8.2945168018341064e-02</leafValues></_>
        <_>
          <internalNodes>
            0 -1 118 1.1964639648795128e-02</internalNodes>
          <leafValues>
            -1.0954946279525757e-01 4.8106110095977783e-01</leafValues></_>
        <_>
          <internalNodes>
            0 -1 119 -1.2273590546101332e-03</internalNodes>
          <leafValues>
            3.2194903492927551e-01 -2.1186517179012299e-01</leafValues></_>
        <_>
          <internalNodes>
            0 -1 112 -3.5821352154016495e-02</internalNodes>
          <leafValues>
            -4.8534497618675232e-01 1.0964107513427734e-01</leafValues></_>
        <_>
          <internalNodes>
            0 -1 59 -7.1678933454677463e-04</internalNodes>
          <leafValues>
            -3.5105532407760620e-01 1.4234925806522369e-01</leafValues></_>
        <_>
          <internalNodes>
            0 -1 80 -1.9533676095306873e-05</internalNodes>
          <leafValues>
            1.2889890372753143e-01 -3.7062802910804749e-01</leafValues></_>
        <_>
          <internalNodes>
            0 -1 141 -1.3660328462719917e-02</internalNodes>
          <leafValues>
            5.2965039014816284e-01 -9.9495902657508850e-02</leafValues></_>
        <_>
          <internalNodes>
            0 -1 146 1.4986684545874596e-03</internalNodes>
          <leafValues>
            -1.8021628260612488e-01 3.4567242860794067e-01</leafValues></_>
        <_>
          <internalNodes>
            0 -1 133 -1.0800259187817574e-03</internalNodes>
          <leafValues>
            -4.2508634924888611e-01 1.2205596268177032e-01</leafValues></_>
        <_>
          <internalNodes>
            0 -1 142 1.5693893656134605e-02</internalNodes>
          <leafValues>
            7.8288160264492035e-02 -6.4705437421798706e-01</leafValues></_>
        <_>
          <internalNodes>
            0 -1 147 -2.1001140121370554e-03</internalNodes>
          <leafValues>
            3.7141460180282593e-01 -1.4167945086956024e-01</leafValues></_>
        <_>
          <internalNodes>
            0 -1 34 -5.8757199440151453e-04</internalNodes>
          <leafValues>
            2.2552195191383362e-01 -2.0813445746898651e-01</leafValues></_></weakClassifiers></_></stages>
  <features>
    <_>
      <rects>
        <_>
          0 0 1 6 -1.</_>
        <_>
          0 2 1 2 3.</_></rects>
      <tilted>0</tilted></_>
    <_>
      <rects>
        <_>
          0 0 12 4 -1.</_>
        <_>
          4 0 4 4 3.</_></rects>
      <tilted>0</tilted></_>
    <_>
      <rects>
        <_>
          0 0 8 12 -1.</_>
        <_>
          0 0 4 6 2.</_>
        <_>
          4 6 4 6 2.</_></rects>
      <tilted>0</tilted></_>
    <_>
      <rects>
        <_>
          0 0 10 20 -1.</_>
        <_>
          5 0 5 20 2.</_></rects>
      <tilted>0</tilted></_>
    <_>
      <rects>
        <_>
          0 0 12 14 -1.</_>
        <_>
          6 0 6 14 2.</_></rects>
      <tilted>0</tilted></_>
    <_>
      <rects>
        <_>
          0 1 1 2 -1.</_>
        <_>
          0 2 1 1 2.</_></rects>
      <tilted>0</tilted></_>
    <_>
      <rects>
        <_>
          0 1 2 2 -1.</_>
        <_>
          0 1 1 1 2.</_>
        <_>
          1 2 1 1 2.</_></rects>
      <tilted>0</tilted></_>
    <_>
      <rects>
        <_>
          0 1 9 2 -1.</_>
        <_>
          3 1 3 2 3.</_></rects>
      <tilted>0</tilted></_>
    <_>
      <rects>
        <_>
          0 1 7 2 -1.</_>
        <_>
          0 2 7 1 2.</_></rects>
      <tilted>0</tilted></_>
    <_>
      <rects>
        <_>
          0 2 2 1 -1.</_>
        <_>
          1 2 1 1 2.</_></rects>
      <tilted>0</tilted></_>
    <_>
      <rects>
        <_>
          0 2 1 2 -1.</_>
        <_>
          0 3 1 1 2.</_></rects>
      <tilted>0</tilted></_>
    <_>
      <rects>
        <_>
          0 2 2 2 -1.</_>
        <_>
          0 2 1 1 2.</_>
        <_>
          1 3 1 1 2.</_></rects>
      <tilted>0</tilted></_>
    <_>
      <rects>
        <_>
          0 3 4 1 -1.</_>
        <_>
          2 3 2 1 2.</_></rects>
      <tilted>0</tilted></_>
    <_>
      <rects>
        <_>
          0 4 10 11 -1.</_>
        <_>
          5 4 5 11 2.</_></rects>
      <tilted>0</tilted></_>
    <_>
      <rects>
        <_>
          0 5 18 8 -1.</_>
        <_>
          6 5 6 8 3.</_></rects>
      <tilted>0</tilted></_>
    <_>
      <rects>
        <_>
          0 6 18 8 -1.</_>
        <_>
          0 6 9 4 2.</_>
        <_>
          9 10 9 4 2.</_></rects>
      <tilted>0</tilted></_>
    <_>
      <rects>
        <_>
          0 7 8 6 -1.</_>
        <_>
          4 7 4 6 2.</_></rects>
      <tilted>0</tilted></_>
    <_>
      <rects>
        <_>
          0 7 12 8 -1.</_>
        <_>
          4 7 4 8 3.</_></rects>
      <tilted>0</tilted></_>
    <_>
      <rects>
        <_>
          0 7 18 6 -1.</_>
        <_>
          6 7 6 6 3.</_></rects>
      <tilted>0</tilted></_>
    <_>
      <rects>
        <_>
          0 7 18 7 -1.</_>
        <_>
          6 7 6 7 3.</_></rects>
      <tilted>0</tilted></_>
    <_>
      <rects>
        <_>
          0 7 18 13 -1.</_>
        <_>
          6 7 6 13 3.</_></rects>
      <tilted>0</tilted></_>
    <_>
      <rects>
        <_>
          0 13 2 6 -1.</_>
        <_>
          0 15 2 2 3.</_></rects>
      <tilted>0</tilted></_>
    <_>
      <rects>
        <_>
          0 15 1 2 -1.</_>
        <_>
          0 16 1 1 2.</_></rects>
      <tilted>0</tilted></_>
    <_>
      <rects>
        <_>
          0 15 2 2 -1.</_>
        <_>
          0 15 1 1 2.</_>
        <_>
          1 16 1 1 2.</_></rects>
      <tilted>0</tilted></_>
    <_>
      <rects>
        <_>
          0 15 3 4 -1.</_>
        <_>
          0 17 3 2 2.</_></rects>
      <tilted>0</tilted></_>
    <_>
      <rects>
        <_>
          0 15 5 4 -1.</_>
        <_>
          0 17 5 2 2.</_></rects>
      <tilted>0</tilted></_>
    <_>
      <rects>
        <_>
          0 15 10 4 -1.</_>
        <_>
          5 15 5 4 2.</_></rects>
      <tilted>0</tilted></_>
    <_>
      <rects>
        <_>
          0 16 1 2 -1.</_>
        <_>
          0 17 1 1 2.</_></rects>
      <tilted>0</tilted></_>
    <_>
      <rects>
        <_>
          0 16 1 3 -1.</_>
        <_>
          0 17 1 1 3.</_></rects>
      <tilted>0</tilted></_>
    <_>
      <rects>
        <_>
          0 16 1 4 -1.</_>
        <_>
          0 18 1 2 2.</_></rects>
      <tilted>0</tilted></_>
    <_>
      <rects>
        <_>
          0 16 2 3 -1.</_>
        <_>
          1 16 1 3 2.</_></rects>
      <tilted>0</tilted></_>
    <_>
      <rects>
        <_>
          0 16 12 3 -1.</_>
        <_>
          4 16 4 3 3.</_></rects>
      <tilted>0</tilted></_>
    <_>
      <rects>
        <_>
          0 16 10 2 -1.</_>
        <_>
          5 16 5 2 2.</_></rects>
      <tilted>0</tilted></_>
    <_>
      <rects>
        <_>
          0 17 1 2 -1.</_>
        <_>
          0 18 1 1 2.</_></rects>
      <tilted>0</tilted></_>
    <_>
      <rects>
        <_>
          0 17 2 2 -1.</_>
        <_>
          0 17 1 1 2.</_>
        <_>
          1 18 1 1 2.</_></rects>
      <tilted>0</tilted></_>
    <_>
      <rects>
        <_>
          0 17 6 3 -1.</_>
        <_>
          3 17 3 3 2.</_></rects>
      <tilted>0</tilted></_>
    <_>
      <rects>
        <_>
          0 18 2 1 -1.</_>
        <_>
          1 18 1 1 2.</_></rects>
      <tilted>0</tilted></_>
    <_>
      <rects>
        <_>
          0 19 16 1 -1.</_>
        <_>
          8 19 8 1 2.</_></rects>
      <tilted>0</tilted></_>
    <_>
      <rects>
        <_>
          1 1 7 2 -1.</_>
        <_>
          1 2 7 1 2.</_></rects>
      <tilted>0</tilted></_>
    <_>
      <rects>
        <_>
          1 1 8 2 -1.</_>
        <_>
          1 2 8 1 2.</_></rects>
      <tilted>0</tilted></_>
    <_>
      <rects>
        <_>
          1 1 16 2 -1.</_>
        <_>
          1 1 8 1 2.</_>
        <_>
          9 2 8 1 2.</_></rects>
      <tilted>0</tilted></_>
    <_>
      <rects>
        <_>
          1 18 2 2 -1.</_>
        <_>
          1 19 2 1 2.</_></rects>
      <tilted>0</tilted></_>
    <_>
      <rects>
        <_>
          2 0 13 6 -1.</_>
        <_>
          2 2 13 2 3.</_></rects>
      <tilted>0</tilted></_>
    <_>
      <rects>
        <_>
          2 1 8 2 -1.</_>
        <_>
          2 2 8 1 2.</_></rects>
      <tilted>0</tilted></_>
    <_>
      <rects>
        <_>
          2 18 2 1 -1.</_>
        <_>
          3 18 1 1 2.</_></rects>
      <tilted>0</tilted></_>
    <_>
      <rects>
        <_>
          2 18 3 1 -1.</_>
        <_>
          3 18 1 1 3.</_></rects>
      <tilted>0</tilted></_>
    <_>
      <rects>
        <_>
          3 0 4 6 -1.</_>
        <_>
          3 2 4 2 3.</_></rects>
      <tilted>0</tilted></_>
    <_>
      <rects>
        <_>
          3 0 8 3 -1.</_>
        <_>
          7 0 4 3 2.</_></rects>
      <tilted>0</tilted></_>
    <_>
      <rects>
        <_>
          3 1 4 2 -1.</_>
        <_>
          3 2 4 1 2.</_></rects>
      <tilted>0</tilted></_>
    <_>
      <rects>
        <_>
          3 1 5 2 -1.</_>
        <_>
          3 2 5 1 2.</_></rects>
      <tilted>0</tilted></_>
    <_>
      <rects>
        <_>
          3 1 12 2 -1.</_>
        <_>
          3 1 6 1 2.</_>
        <_>
          9 2 6 1 2.</_></rects>
      <tilted>0</tilted></_>
    <_>
      <rects>
        <_>
          3 1 13 15 -1.</_>
        <_>
          3 6 13 5 3.</_></rects>
      <tilted>0</tilted></_>
    <_>
      <rects>
        <_>
          3 8 13 10 -1.</_>
        <_>
          3 13 13 5 2.</_></rects>
      <tilted>0</tilted></_>
    <_>
      <rects>
        <_>
          3 17 1 2 -1.</_>
        <_>
          3 18 1 1 2.</_></rects>
      <tilted>0</tilted></_>
    <_>
      <rects>
        <_>
          3 17 1 3 -1.</_>
        <_>
          3 18 1 1 3.</_></rects>
      <tilted>0</tilted></_>
    <_>
      <rects>
        <_>
          3 17 2 3 -1.</_>
        <_>
          3 18 2 1 3.</_></rects>
      <tilted>0</tilted></_>
    <_>
      <rects>
        <_>
          3 17 3 2 -1.</_>
        <_>
          3 18 3 1 2.</_></rects>
      <tilted>0</tilted></_>
    <_>
      <rects>
        <_>
          3 18 2 1 -1.</_>
        <_>
          4 18 1 1 2.</_></rects>
      <tilted>0</tilted></_>
    <_>
      <rects>
        <_>
          3 18 1 2 -1.</_>
        <_>
          3 19 1 1 2.</_></rects>
      <tilted>0</tilted></_>
    <_>
      <rects>
        <_>
          4 0 1 2 -1.</_>
        <_>
          4 1 1 1 2.</_></rects>
      <tilted>0</tilted></_>
    <_>
      <rects>
        <_>
          4 1 10 2 -1.</_>
        <_>
          4 1 5 1 2.</_>
        <_>
          9 2 5 1 2.</_></rects>
      <tilted>0</tilted></_>
    <_>
      <rects>
        <_>
          4 2 7 15 -1.</_>
        <_>
          4 7 7 5 3.</_></rects>
      <tilted>0</tilted></_>
    <_>
      <rects>
        <_>
          4 4 11 12 -1.</_>
        <_>
          4 8 11 4 3.</_></rects>
      <tilted>0</tilted></_>
    <_>
      <rects>
        <_>
          4 8 6 12 -1.</_>
        <_>
          4 14 6 6 2.</_></rects>
      <tilted>0</tilted></_>
    <_>
      <rects>
        <_>
          4 17 3 2 -1.</_>
        <_>
          4 18 3 1 2.</_></rects>
      <tilted>0</tilted></_>
    <_>
      <rects>
        <_>
          4 17 8 2 -1.</_>
        <_>
          4 17 4 1 2.</_>
        <_>
          8 18 4 1 2.</_></rects>
      <tilted>0</tilted></_>
    <_>
      <rects>
        <_>
          4 17 5 2 -1.</_>
        <_>
          4 18 5 1 2.</_></rects>
      <tilted>0</tilted></_>
    <_>
      <rects>
        <_>
          5 0 4 2 -1.</_>
        <_>
          5 0 2 1 2.</_>
        <_>
          7 1 2 1 2.</_></rects>
      <tilted>0</tilted></_>
    <_>
      <rects>
        <_>
          5 0 8 2 -1.</_>
        <_>
          5 0 4 1 2.</_>
        <_>
          9 1 4 1 2.</_></rects>
      <tilted>0</tilted></_>
    <_>
      <rects>
        <_>
          5 3 8 15 -1.</_>
        <_>
          5 8 8 5 3.</_></rects>
      <tilted>0</tilted></_>
    <_>
      <rects>
        <_>
          5 4 15 8 -1.</_>
        <_>
          10 4 5 8 3.</_></rects>
      <tilted>0</tilted></_>
    <_>
      <rects>
        <_>
          5 7 9 9 -1.</_>
        <_>
          5 10 9 3 3.</_></rects>
      <tilted>0</tilted></_>
    <_>
      <rects>
        <_>
          5 13 8 6 -1.</_>
        <_>
          5 15 8 2 3.</_></rects>
      <tilted>0</tilted></_>
    <_>
      <rects>
        <_>
          5 15 12 3 -1.</_>
        <_>
          9 15 4 3 3.</_></rects>
      <tilted>0</tilted></_>
    <_>
      <rects>
        <_>
          6 0 2 2 -1.</_>
        <_>
          6 0 1 1 2.</_>
        <_>
          7 1 1 1 2.</_></rects>
      <tilted>0</tilted></_>
    <_>
      <rects>
        <_>
          6 1 2 1 -1.</_>
        <_>
          7 1 1 1 2.</_></rects>
      <tilted>0</tilted></_>
    <_>
      <rects>
        <_>
          6 1 3 1 -1.</_>
        <_>
          7 1 1 1 3.</_></rects>
      <tilted>0</tilted></_>
    <_>
      <rects>
        <_>
          6 1 9 15 -1.</_>
        <_>
          6 6 9 5 3.</_></rects>
      <tilted>0</tilted></_>
    <_>
      <rects>
        <_>
          6 2 7 15 -1.</_>
        <_>
          6 7 7 5 3.</_></rects>
      <tilted>0</tilted></_>
    <_>
      <rects>
        <_>
          6 6 8 12 -1.</_>
        <_>
          6 10 8 4 3.</_></rects>
      <tilted>0</tilted></_>
    <_>
      <rects>
        <_>
          7 0 2 2 -1.</_>
        <_>
          7 1 2 1 2.</_></rects>
      <tilted>0</tilted></_>
    <_>
      <rects>
        <_>
          7 1 2 2 -1.</_>
        <_>
          7 2 2 1 2.</_></rects>
      <tilted>0</tilted></_>
    <_>
      <rects>
        <_>
          7 1 5 18 -1.</_>
        <_>
          7 7 5 6 3.</_></rects>
      <tilted>0</tilted></_>
    <_>
      <rects>
        <_>
          7 13 7 6 -1.</_>
        <_>
          7 15 7 2 3.</_></rects>
      <tilted>0</tilted></_>
    <_>
      <rects>
        <_>
          7 16 2 2 -1.</_>
        <_>
          7 16 1 1 2.</_>
        <_>
          8 17 1 1 2.</_></rects>
      <tilted>0</tilted></_>
    <_>
      <rects>
        <_>
          7 17 3 1 -1.</_>
        <_>
          8 17 1 1 3.</_></rects>
      <tilted>0</tilted></_>
    <_>
      <rects>
        <_>
          8 1 2 1 -1.</_>
        <_>
          9 1 1 1 2.</_></rects>
      <tilted>0</tilted></_>
    <_>
      <rects>
        <_>
          8 1 3 1 -1.</_>
        <_>
          9 1 1 1 3.</_></rects>
      <tilted>0</tilted></_>
    <_>
      <rects>
        <_>
          8 1 2 2 -1.</_>
        <_>
          8 1 1 1 2.</_>
        <_>
          9 2 1 1 2.</_></rects>
      <tilted>0</tilted></_>
    <_>
      <rects>
        <_>
          8 1 5 18 -1.</_>
        <_>
          8 7 5 6 3.</_></rects>
      <tilted>0</tilted></_>
    <_>
      <rects>
        <_>
          8 6 12 7 -1.</_>
        <_>
          14 6 6 7 2.</_></rects>
      <tilted>0</tilted></_>
    <_>
      <rects>
        <_>
          8 6 12 8 -1.</_>
        <_>
          14 6 6 8 2.</_></rects>
      <tilted>0</tilted></_>
    <_>
      <rects>
        <_>
          8 15 4 3 -1.</_>
        <_>
          8 16 4 1 3.</_></rects>
      <tilted>0</tilted></_>
    <_>
      <rects>
        <_>
          8 16 1 2 -1.</_>
        <_>
          8 17 1 1 2.</_></rects>
      <tilted>0</tilted></_>
    <_>
      <rects>
        <_>
          8 16 1 3 -1.</_>
        <_>
          8 17 1 1 3.</_></rects>
      <tilted>0</tilted></_>
    <_>
      <rects>
        <_>
          8 16 4 2 -1.</_>
        <_>
          8 17 4 1 2.</_></rects>
      <tilted>0</tilted></_>
    <_>
      <rects>
        <_>
          8 17 2 1 -1.</_>
        <_>
          9 17 1 1 2.</_></rects>
      <tilted>0</tilted></_>
    <_>
      <rects>
        <_>
          8 17 1 2 -1.</_>
        <_>
          8 18 1 1 2.</_></rects>
      <tilted>0</tilted></_>
    <_>
      <rects>
        <_>
          9 0 5 2 -1.</_>
        <_>
          9 1 5 1 2.</_></rects>
      <tilted>0</tilted></_>
    <_>
      <rects>
        <_>
          9 0 6 15 -1.</_>
        <_>
          9 5 6 5 3.</_></rects>
      <tilted>0</tilted></_>
    <_>
      <rects>
        <_>
          9 2 5 15 -1.</_>
        <_>
          9 7 5 5 3.</_></rects>
      <tilted>0</tilted></_>
    <_>
      <rects>
        <_>
          9 6 9 7 -1.</_>
        <_>
          12 6 3 7 3.</_></rects>
      <tilted>0</tilted></_>
    <_>
      <rects>
        <_>
          9 15 8 2 -1.</_>
        <_>
          9 15 4 1 2.</_>
        <_>
          13 16 4 1 2.</_></rects>
      <tilted>0</tilted></_>
    <_>
      <rects>
        <_>
          9 16 3 2 -1.</_>
        <_>
          9 17 3 1 2.</_></rects>
      <tilted>0</tilted></_>
    <_>
      <rects>
        <_>
          10 0 6 1 -1.</_>
        <_>
          13 0 3 1 2.</_></rects>
      <tilted>0</tilted></_>
    <_>
      <rects>
        <_>
          10 0 4 2 -1.</_>
        <_>
          10 1 4 1 2.</_></rects>
      <tilted>0</tilted></_>
    <_>
      <rects>
        <_>
          10 0 5 2 -1.</_>
        <_>
          10 1 5 1 2.</_></rects>
      <tilted>0</tilted></_>
    <_>
      <rects>
        <_>
          10 0 10 2 -1.</_>
        <_>
          10 0 5 1 2.</_>
        <_>
          15 1 5 1 2.</_></rects>
      <tilted>0</tilted></_>
    <_>
      <rects>
        <_>
          10 0 10 12 -1.</_>
        <_>
          15 0 5 12 2.</_></rects>
      <tilted>0</tilted></_>
    <_>
      <rects>
        <_>
          10 0 6 2 -1.</_>
        <_>
          10 1 6 1 2.</_></rects>
      <tilted>0</tilted></_>
    <_>
      <rects>
        <_>
          10 0 8 2 -1.</_>
        <_>
          10 1 8 1 2.</_></rects>
      <tilted>0</tilted></_>
    <_>
      <rects>
        <_>
          10 5 10 7 -1.</_>
        <_>
          15 5 5 7 2.</_></rects>
      <tilted>0</tilted></_>
    <_>
      <rects>
        <_>
          10 14 8 6 -1.</_>
        <_>
          14 14 4 6 2.</_></rects>
      <tilted>0</tilted></_>
    <_>
      <rects>
        <_>
          10 16 2 2 -1.</_>
        <_>
          10 17 2 1 2.</_></rects>
      <tilted>0</tilted></_>
    <_>
      <rects>
        <_>
          11 0 3 2 -1.</_>
        <_>
          11 1 3 1 2.</_></rects>
      <tilted>0</tilted></_>
    <_>
      <rects>
        <_>
          11 0 9 2 -1.</_>
        <_>
          14 0 3 2 3.</_></rects>
      <tilted>0</tilted></_>
    <_>
      <rects>
        <_>
          11 0 5 2 -1.</_>
        <_>
          11 1 5 1 2.</_></rects>
      <tilted>0</tilted></_>
    <_>
      <rects>
        <_>
          12 0 4 2 -1.</_>
        <_>
          12 1 4 1 2.</_></rects>
      <tilted>0</tilted></_>
    <_>
      <rects>
        <_>
          12 15 6 2 -1.</_>
        <_>
          12 16 6 1 2.</_></rects>
      <tilted>0</tilted></_>
    <_>
      <rects>
        <_>
          12 16 2 1 -1.</_>
        <_>
          13 16 1 1 2.</_></rects>
      <tilted>0</tilted></_>
    <_>
      <rects>
        <_>
          12 16 3 1 -1.</_>
        <_>
          13 16 1 1 3.</_></rects>
      <tilted>0</tilted></_>
    <_>
      <rects>
        <_>
          13 15 1 2 -1.</_>
        <_>
          13 16 1 1 2.</_></rects>
      <tilted>0</tilted></_>
    <_>
      <rects>
        <_>
          13 15 4 2 -1.</_>
        <_>
          13 16 4 1 2.</_></rects>
      <tilted>0</tilted></_>
    <_>
      <rects>
        <_>
          13 16 2 1 -1.</_>
        <_>
          14 16 1 1 2.</_></rects>
      <tilted>0</tilted></_>
    <_>
      <rects>
        <_>
          13 16 1 2 -1.</_>
        <_>
          13 17 1 1 2.</_></rects>
      <tilted>0</tilted></_>
    <_>
      <rects>
        <_>
          14 0 2 1 -1.</_>
        <_>
          15 0 1 1 2.</_></rects>
      <tilted>0</tilted></_>
    <_>
      <rects>
        <_>
          14 0 3 1 -1.</_>
        <_>
          15 0 1 1 3.</_></rects>
      <tilted>0</tilted></_>
    <_>
      <rects>
        <_>
          14 0 2 2 -1.</_>
        <_>
          14 0 1 1 2.</_>
        <_>
          15 1 1 1 2.</_></rects>
      <tilted>0</tilted></_>
    <_>
      <rects>
        <_>
          14 15 1 2 -1.</_>
        <_>
          14 16 1 1 2.</_></rects>
      <tilted>0</tilted></_>
    <_>
      <rects>
        <_>
          14 15 3 2 -1.</_>
        <_>
          14 16 3 1 2.</_></rects>
      <tilted>0</tilted></_>
    <_>
      <rects>
        <_>
          15 0 2 1 -1.</_>
        <_>
          16 0 1 1 2.</_></rects>
      <tilted>0</tilted></_>
    <_>
      <rects>
        <_>
          15 0 1 2 -1.</_>
        <_>
          15 1 1 1 2.</_></rects>
      <tilted>0</tilted></_>
    <_>
      <rects>
        <_>
          15 15 3 2 -1.</_>
        <_>
          15 16 3 1 2.</_></rects>
      <tilted>0</tilted></_>
    <_>
      <rects>
        <_>
          16 19 2 1 -1.</_>
        <_>
          17 19 1 1 2.</_></rects>
      <tilted>0</tilted></_>
    <_>
      <rects>
        <_>
          17 13 3 1 -1.</_>
        <_>
          18 13 1 1 3.</_></rects>
      <tilted>0</tilted></_>
    <_>
      <rects>
        <_>
          17 13 2 2 -1.</_>
        <_>
          18 13 1 2 2.</_></rects>
      <tilted>0</tilted></_>
    <_>
      <rects>
        <_>
          17 15 2 2 -1.</_>
        <_>
          17 15 1 1 2.</_>
        <_>
          18 16 1 1 2.</_></rects>
      <tilted>0</tilted></_>
    <_>
      <rects>
        <_>
          18 1 2 10 -1.</_>
        <_>
          18 1 1 5 2.</_>
        <_>
          19 6 1 5 2.</_></rects>
      <tilted>0</tilted></_>
    <_>
      <rects>
        <_>
          18 1 2 12 -1.</_>
        <_>
          18 5 2 4 3.</_></rects>
      <tilted>0</tilted></_>
    <_>
      <rects>
        <_>
          18 5 2 4 -1.</_>
        <_>
          18 5 1 2 2.</_>
        <_>
          19 7 1 2 2.</_></rects>
      <tilted>0</tilted></_>
    <_>
      <rects>
        <_>
          18 7 2 1 -1.</_>
        <_>
          19 7 1 1 2.</_></rects>
      <tilted>0</tilted></_>
    <_>
      <rects>
        <_>
          18 7 2 6 -1.</_>
        <_>
          19 7 1 6 2.</_></rects>
      <tilted>0</tilted></_>
    <_>
      <rects>
        <_>
          18 7 2 6 -1.</_>
        <_>
          18 10 2 3 2.</_></rects>
      <tilted>0</tilted></_>
    <_>
      <rects>
        <_>
          18 8 2 4 -1.</_>
        <_>
          19 8 1 4 2.</_></rects>
      <tilted>0</tilted></_>
    <_>
      <rects>
        <_>
          18 9 2 4 -1.</_>
        <_>
          19 9 1 4 2.</_></rects>
      <tilted>0</tilted></_>
    <_>
      <rects>
        <_>
          18 10 2 1 -1.</_>
        <_>
          19 10 1 1 2.</_></rects>
      <tilted>0</tilted></_>
    <_>
      <rects>
        <_>
          18 11 2 1 -1.</_>
        <_>
          19 11 1 1 2.</_></rects>
      <tilted>0</tilted></_>
    <_>
      <rects>
        <_>
          18 12 1 2 -1.</_>
        <_>
          18 13 1 1 2.</_></rects>
      <tilted>0</tilted></_>
    <_>
      <rects>
        <_>
          18 12 1 3 -1.</_>
        <_>
          18 13 1 1 3.</_></rects>
      <tilted>0</tilted></_>
    <_>
      <rects>
        <_>
          18 13 2 1 -1.</_>
        <_>
          19 13 1 1 2.</_></rects>
      <tilted>0</tilted></_>
    <_>
      <rects>
        <_>
          18 13 1 2 -1.</_>
        <_>
          18 14 1 1 2.</_></rects>
      <tilted>0</tilted></_>
    <_>
      <rects>
        <_>
          19 6 1 2 -1.</_>
        <_>
          19 7 1 1 2.</_></rects>
      <tilted>0</tilted></_>
    <_>
      <rects>
        <_>
          19 6 1 3 -1.</_>
        <_>
          19 7 1 1 3.</_></rects>
      <tilted>0</tilted></_>
    <_>
      <rects>
        <_>
          19 7 1 2 -1.</_>
        <_>
          19 8 1 1 2.</_></rects>
      <tilted>0</tilted></_></features></cascade>
</opencv_storage>
