<?xml version="1.0"?>
<opencv_storage>
<stage17>
  <maxWeakCount>67</maxWeakCount>
  <stageThreshold>-1.1713768243789673e+00</stageThreshold>
  <weakClassifiers>
    <_>
      <internalNodes>
        0 -1 8749 8.2416217774152756e-03</internalNodes>
      <leafValues>
        3.6878612637519836e-01 -5.4285717010498047e-01</leafValues></_>
    <_>
      <internalNodes>
        0 -1 20894 2.1593788638710976e-02</internalNodes>
      <leafValues>
        -6.7940652370452881e-02 4.6644529700279236e-01</leafValues></_>
    <_>
      <internalNodes>
        0 -1 11061 7.9195005819201469e-03</internalNodes>
      <leafValues>
        -1.1596156656742096e-01 4.9657049775123596e-01</leafValues></_>
    <_>
      <internalNodes>
        0 -1 110265 3.5305629717186093e-04</internalNodes>
      <leafValues>
        -2.1921171247959137e-01 1.8983587622642517e-01</leafValues></_>
    <_>
      <internalNodes>
        0 -1 114745 -5.2833901718258858e-03</internalNodes>
      <leafValues>
        4.0861937403678894e-01 -1.2643846869468689e-01</leafValues></_>
    <_>
      <internalNodes>
        0 -1 118261 5.5798115208745003e-03</internalNodes>
      <leafValues>
        -1.2509454786777496e-01 3.4909987449645996e-01</leafValues></_>
    <_>
      <internalNodes>
        0 -1 19279 -4.7318525612354279e-03</internalNodes>
      <leafValues>
        4.7013452649116516e-01 -9.1142371296882629e-02</leafValues></_>
    <_>
      <internalNodes>
        0 -1 90855 1.0612691938877106e-01</internalNodes>
      <leafValues>
        -1.7240846157073975e-01 2.3365369439125061e-01</leafValues></_>
    <_>
      <internalNodes>
        0 -1 9737 4.5786966802552342e-04</internalNodes>
      <leafValues>
        -2.2907334566116333e-01 1.7435669898986816e-01</leafValues></_>
    <_>
      <internalNodes>
        0 -1 124684 -5.3170013416092843e-05</internalNodes>
      <leafValues>
        -2.9943099617958069e-01 1.2224294990301132e-01</leafValues></_>
    <_>
      <internalNodes>
        0 -1 121182 -1.3396311551332474e-02</internalNodes>
      <leafValues>
        3.9221888780593872e-01 -9.7275719046592712e-02</leafValues></_>
    <_>
      <internalNodes>
        0 -1 122909 -3.5637222230434418e-02</internalNodes>
      <leafValues>
        -2.9121723771095276e-01 1.3734978437423706e-01</leafValues></_>
    <_>
      <internalNodes>
        0 -1 9769 -1.3484790921211243e-02</internalNodes>
      <leafValues>
        -5.7800877094268799e-01 5.2228849381208420e-02</leafValues></_>
    <_>
      <internalNodes>
        0 -1 86938 -2.9851885046809912e-03</internalNodes>
      <leafValues>
        -4.5678919553756714e-01 6.2111582607030869e-02</leafValues></_>
    <_>
      <internalNodes>
        0 -1 9336 -1.7380139324814081e-03</internalNodes>
      <leafValues>
        2.9279190301895142e-01 -1.1749620735645294e-01</leafValues></_>
    <_>
      <internalNodes>
        0 -1 7482 3.9852806366980076e-03</internalNodes>
      <leafValues>
        -1.5639294683933258e-01 2.6709231734275818e-01</leafValues></_>
    <_>
      <internalNodes>
        0 -1 110553 2.0968658849596977e-02</internalNodes>
      <leafValues>
        5.3766835480928421e-02 -6.5720468759536743e-01</leafValues></_>
    <_>
      <internalNodes>
        0 -1 86930 3.3397600054740906e-03</internalNodes>
      <leafValues>
        -9.0968884527683258e-02 4.3915781378746033e-01</leafValues></_>
    <_>
      <internalNodes>
        0 -1 72220 -1.3239718973636627e-03</internalNodes>
      <leafValues>
        -2.7182561159133911e-01 1.1908676475286484e-01</leafValues></_>
    <_>
      <internalNodes>
        0 -1 56603 -1.1227622162550688e-03</internalNodes>
      <leafValues>
        1.8899865448474884e-01 -1.7731496691703796e-01</leafValues></_>
    <_>
      <internalNodes>
        0 -1 39823 4.1728704236447811e-03</internalNodes>
      <leafValues>
        1.0692264139652252e-01 -3.2517549395561218e-01</leafValues></_>
    <_>
      <internalNodes>
        0 -1 86933 1.8406598828732967e-03</internalNodes>
      <leafValues>
        9.2651106417179108e-02 -3.5934028029441833e-01</leafValues></_>
    <_>
      <internalNodes>
        0 -1 123186 2.9065359383821487e-02</internalNodes>
      <leafValues>
        5.9585008770227432e-02 -5.2923405170440674e-01</leafValues></_>
    <_>
      <internalNodes>
        0 -1 99731 6.4388038590550423e-03</internalNodes>
      <leafValues>
        -7.7995687723159790e-02 4.4029930233955383e-01</leafValues></_>
    <_>
      <internalNodes>
        0 -1 42852 2.5053441524505615e-02</internalNodes>
      <leafValues>
        -8.9678309857845306e-02 3.5647195577621460e-01</leafValues></_>
    <_>
      <internalNodes>
        0 -1 105753 -9.6309985965490341e-03</internalNodes>
      <leafValues>
        -4.8651215434074402e-01 7.0162691175937653e-02</leafValues></_>
    <_>
      <internalNodes>
        0 -1 37875 -1.3379307347349823e-04</internalNodes>
      <leafValues>
        -2.8846588730812073e-01 1.1182465404272079e-01</leafValues></_>
    <_>
      <internalNodes>
        0 -1 102725 5.6575715541839600e-02</internalNodes>
      <leafValues>
        -9.4791129231452942e-02 3.4696432948112488e-01</leafValues></_>
    <_>
      <internalNodes>
        0 -1 61661 7.7337644994258881e-02</internalNodes>
      <leafValues>
        -9.2292703688144684e-02 3.7599197030067444e-01</leafValues></_>
    <_>
      <internalNodes>
        0 -1 125013 -1.1716482695192099e-03</internalNodes>
      <leafValues>
        2.4243858456611633e-01 -1.2758006155490875e-01</leafValues></_>
    <_>
      <internalNodes>
        0 -1 1603 -1.7850467935204506e-02</internalNodes>
      <leafValues>
        2.8854787349700928e-01 -1.0420903563499451e-01</leafValues></_>
    <_>
      <internalNodes>
        0 -1 11 -9.8169036209583282e-03</internalNodes>
      <leafValues>
        -5.1778602600097656e-01 6.8883806467056274e-02</leafValues></_>
    <_>
      <internalNodes>
        0 -1 72092 1.0508015111554414e-04</internalNodes>
      <leafValues>
        9.4869710505008698e-02 -3.4891560673713684e-01</leafValues></_>
    <_>
      <internalNodes>
        0 -1 83160 -3.8816325832158327e-03</internalNodes>
      <leafValues>
        5.1469469070434570e-01 -6.4482949674129486e-02</leafValues></_>
    <_>
      <internalNodes>
        0 -1 43462 -4.3506468646228313e-03</internalNodes>
      <leafValues>
        3.1293523311614990e-01 -9.8714828491210938e-02</leafValues></_>
    <_>
      <internalNodes>
        0 -1 88182 1.5004000067710876e-01</internalNodes>
      <leafValues>
        -5.2481342107057571e-02 5.9466361999511719e-01</leafValues></_>
    <_>
      <internalNodes>
        0 -1 55535 -1.8232222646474838e-02</internalNodes>
      <leafValues>
        5.0682151317596436e-01 -5.2772168070077896e-02</leafValues></_>
    <_>
      <internalNodes>
        0 -1 55642 -9.2039424926042557e-03</internalNodes>
      <leafValues>
        4.7304341197013855e-01 -6.9990679621696472e-02</leafValues></_>
    <_>
      <internalNodes>
        0 -1 97126 5.6058326736092567e-03</internalNodes>
      <leafValues>
        -9.2710316181182861e-02 3.2565769553184509e-01</leafValues></_>
    <_>
      <internalNodes>
        0 -1 123408 2.7376976795494556e-03</internalNodes>
      <leafValues>
        -8.2893475890159607e-02 3.6076891422271729e-01</leafValues></_>
    <_>
      <internalNodes>
        0 -1 64019 1.7974275397136807e-04</internalNodes>
      <leafValues>
        -2.0285725593566895e-01 1.5542446076869965e-01</leafValues></_>
    <_>
      <internalNodes>
        0 -1 39070 7.6955584809184074e-03</internalNodes>
      <leafValues>
        -9.4430260360240936e-02 3.5367193818092346e-01</leafValues></_>
    <_>
      <internalNodes>
        0 -1 10359 -2.3030150681734085e-02</internalNodes>
      <leafValues>
        -4.0957593917846680e-01 8.6568675935268402e-02</leafValues></_>
    <_>
      <internalNodes>
        0 -1 39711 -5.6534446775913239e-04</internalNodes>
      <leafValues>
        -2.8714996576309204e-01 1.1058946698904037e-01</leafValues></_>
    <_>
      <internalNodes>
        0 -1 9101 -1.6847975552082062e-02</internalNodes>
      <leafValues>
        -3.3297178149223328e-01 9.5998294651508331e-02</leafValues></_>
    <_>
      <internalNodes>
        0 -1 2850 4.8796422779560089e-03</internalNodes>
      <leafValues>
        8.5513725876808167e-02 -3.6336347460746765e-01</leafValues></_>
    <_>
      <internalNodes>
        0 -1 76846 -6.2954528257250786e-03</internalNodes>
      <leafValues>
        5.0408363342285156e-01 -6.0990933328866959e-02</leafValues></_>
    <_>
      <internalNodes>
        0 -1 123550 9.5039210282266140e-04</internalNodes>
      <leafValues>
        1.0191536694765091e-01 -3.1275835633277893e-01</leafValues></_>
    <_>
      <internalNodes>
        0 -1 84199 -8.6492337286472321e-03</internalNodes>
      <leafValues>
        3.9981365203857422e-01 -7.3991581797599792e-02</leafValues></_>
    <_>
      <internalNodes>
        0 -1 120329 -1.5393691137433052e-02</internalNodes>
      <leafValues>
        3.1772112846374512e-01 -9.1314837336540222e-02</leafValues></_>
    <_>
      <internalNodes>
        0 -1 84625 4.2348699644207954e-03</internalNodes>
      <leafValues>
        -1.4537705481052399e-01 2.0277065038681030e-01</leafValues></_>
    <_>
      <internalNodes>
        0 -1 123348 -8.5446133743971586e-04</internalNodes>
      <leafValues>
        2.1132510900497437e-01 -1.4525181055068970e-01</leafValues></_>
    <_>
      <internalNodes>
        0 -1 77721 -2.5563959032297134e-02</internalNodes>
      <leafValues>
        1.1858655512332916e-01 -2.6071292161941528e-01</leafValues></_>
    <_>
      <internalNodes>
        0 -1 95226 -1.0578888654708862e-01</internalNodes>
      <leafValues>
        8.3125221729278564e-01 -4.2515080422163010e-02</leafValues></_>
    <_>
      <internalNodes>
        0 -1 20152 -1.9048017263412476e-01</internalNodes>
      <leafValues>
        5.1429688930511475e-01 -4.7594964504241943e-02</leafValues></_>
    <_>
      <internalNodes>
        0 -1 64568 -1.6997894272208214e-02</internalNodes>
      <leafValues>
        -3.5617867112159729e-01 8.9342728257179260e-02</leafValues></_>
    <_>
      <internalNodes>
        0 -1 87313 -1.6004644334316254e-02</internalNodes>
      <leafValues>
        3.2781282067298889e-01 -9.0625926852226257e-02</leafValues></_>
    <_>
      <internalNodes>
        0 -1 72771 9.7628794610500336e-03</internalNodes>
      <leafValues>
        -1.1254043877124786e-01 3.3310273289680481e-01</leafValues></_>
    <_>
      <internalNodes>
        0 -1 121532 -2.7725507970899343e-03</internalNodes>
      <leafValues>
        -3.6970171332359314e-01 9.1511435806751251e-02</leafValues></_>
    <_>
      <internalNodes>
        0 -1 44945 -2.8434144333004951e-03</internalNodes>
      <leafValues>
        3.1389480829238892e-01 -9.3745030462741852e-02</leafValues></_>
    <_>
      <internalNodes>
        0 -1 29371 1.8824690580368042e-01</internalNodes>
      <leafValues>
        -6.3259959220886230e-02 4.3557101488113403e-01</leafValues></_>
    <_>
      <internalNodes>
        0 -1 105328 7.4377632699906826e-03</internalNodes>
      <leafValues>
        -1.3604909181594849e-01 2.2405618429183960e-01</leafValues></_>
    <_>
      <internalNodes>
        0 -1 121294 2.1225715056061745e-02</internalNodes>
      <leafValues>
        6.7145466804504395e-02 -5.0709527730941772e-01</leafValues></_>
    <_>
      <internalNodes>
        0 -1 125040 9.6484960522502661e-04</internalNodes>
      <leafValues>
        -1.5694454312324524e-01 2.1186187863349915e-01</leafValues></_>
    <_>
      <internalNodes>
        0 -1 124453 -2.1947936620563269e-03</internalNodes>
      <leafValues>
        3.3864071965217590e-01 -9.9659934639930725e-02</leafValues></_>
    <_>
      <internalNodes>
        0 -1 37597 3.1965321395546198e-03</internalNodes>
      <leafValues>
        5.9458248317241669e-02 -6.2112742662429810e-01</leafValues></_>
    <_>
      <internalNodes>
        0 -1 9410 -1.5672968700528145e-02</internalNodes>
      <leafValues>
        -5.5327612161636353e-01 5.2272375673055649e-02</leafValues></_></weakClassifiers></stage17>
</opencv_storage>
